digraph Tree {
node [shape=box, style="filled, rounded", color="black", fontname=helvetica] ;
edge [fontname=helvetica] ;
0 [label="petal length (cm) <= 4.75\ngini = 0.66\nsamples = 93\nvalue = [41, 48, 61]\nclass = virginica", fillcolor="#efe6fc"] ;
1 [label="sepal length (cm) <= 5.45\ngini = 0.51\nsamples = 50\nvalue = [41, 45, 1]\nclass = versicolor", fillcolor="#eefdf4"] ;
0 -> 1 [labeldistance=2.5, labelangle=45, headlabel="True"] ;
2 [label="petal width (cm) <= 0.7\ngini = 0.28\nsamples = 25\nvalue = [36, 6, 1]\nclass = setosa", fillcolor="#ea995e"] ;
1 -> 2 ;
3 [label="gini = 0.0\nsamples = 21\nvalue = [36, 0, 0]\nclass = setosa", fillcolor="#e58139"] ;
2 -> 3 ;
4 [label="petal width (cm) <= 1.6\ngini = 0.24\nsamples = 4\nvalue = [0, 6, 1]\nclass = versicolor", fillcolor="#5ae996"] ;
2 -> 4 ;
5 [label="gini = 0.0\nsamples = 3\nvalue = [0, 6, 0]\nclass = versicolor", fillcolor="#39e581"] ;
4 -> 5 ;
6 [label="gini = 0.0\nsamples = 1\nvalue = [0, 0, 1]\nclass = virginica", fillcolor="#8139e5"] ;
4 -> 6 ;
7 [label="petal width (cm) <= 0.7\ngini = 0.2\nsamples = 25\nvalue = [5, 39, 0]\nclass = versicolor", fillcolor="#52e891"] ;
1 -> 7 ;
8 [label="gini = 0.0\nsamples = 2\nvalue = [5, 0, 0]\nclass = setosa", fillcolor="#e58139"] ;
7 -> 8 ;
9 [label="gini = 0.0\nsamples = 23\nvalue = [0, 39, 0]\nclass = versicolor", fillcolor="#39e581"] ;
7 -> 9 ;
10 [label="petal width (cm) <= 1.7\ngini = 0.09\nsamples = 43\nvalue = [0, 3, 60]\nclass = virginica", fillcolor="#8743e6"] ;
0 -> 10 [labeldistance=2.5, labelangle=-45, headlabel="False"] ;
11 [label="sepal length (cm) <= 6.75\ngini = 0.5\nsamples = 5\nvalue = [0, 3, 3]\nclass = versicolor", fillcolor="#ffffff"] ;
10 -> 11 ;
12 [label="sepal width (cm) <= 2.35\ngini = 0.48\nsamples = 4\nvalue = [0, 3, 2]\nclass = versicolor", fillcolor="#bdf6d5"] ;
11 -> 12 ;
13 [label="gini = 0.0\nsamples = 1\nvalue = [0, 0, 1]\nclass = virginica", fillcolor="#8139e5"] ;
12 -> 13 ;
14 [label="sepal width (cm) <= 2.75\ngini = 0.38\nsamples = 3\nvalue = [0, 3, 1]\nclass = versicolor", fillcolor="#7beeab"] ;
12 -> 14 ;
15 [label="gini = 0.0\nsamples = 2\nvalue = [0, 3, 0]\nclass = versicolor", fillcolor="#39e581"] ;
14 -> 15 ;
16 [label="gini = 0.0\nsamples = 1\nvalue = [0, 0, 1]\nclass = virginica", fillcolor="#8139e5"] ;
14 -> 16 ;
17 [label="gini = 0.0\nsamples = 1\nvalue = [0, 0, 1]\nclass = virginica", fillcolor="#8139e5"] ;
11 -> 17 ;
18 [label="gini = 0.0\nsamples = 38\nvalue = [0, 0, 57]\nclass = virginica", fillcolor="#8139e5"] ;
10 -> 18 ;
}